digraph Tree {
node [shape=box, style="filled", color="black"] ;
0 [label="age <= 50.5\ngini = 0.443\nsamples = 369\nvalue = [247, 122]\nclass = No left", fillcolor="#f2bf9b"] ;
1 [label="ldl <= 4.155\ngini = 0.324\nsamples = 236\nvalue = [188, 48]\nclass = No left", fillcolor="#eca16c"] ;
0 -> 1 [labeldistance=2.5, labelangle=45, headlabel="True"] ;
2 [label="tobacco <= 3.995\ngini = 0.172\nsamples = 126\nvalue = [114, 12]\nclass = No left", fillcolor="#e88e4e"] ;
1 -> 2 ;
3 [label="sbp <= 105.0\ngini = 0.096\nsamples = 99\nvalue = [94, 5]\nclass = No left", fillcolor="#e68844"] ;
2 -> 3 ;
4 [label="gini = 0.0\nsamples = 1\nvalue = [0, 1]\nclass = Left", fillcolor="#399de5"] ;
3 -> 4 ;
5 [label="obesity <= 18.48\ngini = 0.078\nsamples = 98\nvalue = [94, 4]\nclass = No left", fillcolor="#e68641"] ;
3 -> 5 ;
6 [label="obesity <= 18.175\ngini = 0.444\nsamples = 3\nvalue = [2, 1]\nclass = No left", fillcolor="#f2c09c"] ;
5 -> 6 ;
7 [label="gini = 0.0\nsamples = 2\nvalue = [2, 0]\nclass = No left", fillcolor="#e58139"] ;
6 -> 7 ;
8 [label="gini = 0.0\nsamples = 1\nvalue = [0, 1]\nclass = Left", fillcolor="#399de5"] ;
6 -> 8 ;
9 [label="tobacco <= 1.075\ngini = 0.061\nsamples = 95\nvalue = [92, 3]\nclass = No left", fillcolor="#e6853f"] ;
5 -> 9 ;
10 [label="gini = 0.0\nsamples = 72\nvalue = [72, 0]\nclass = No left", fillcolor="#e58139"] ;
9 -> 10 ;
11 [label="tobacco <= 1.13\ngini = 0.227\nsamples = 23\nvalue = [20, 3]\nclass = No left", fillcolor="#e99457"] ;
9 -> 11 ;
12 [label="gini = 0.0\nsamples = 1\nvalue = [0, 1]\nclass = Left", fillcolor="#399de5"] ;
11 -> 12 ;
13 [label="gini = 0.165\nsamples = 22\nvalue = [20, 2]\nclass = No left", fillcolor="#e88e4d"] ;
11 -> 13 ;
14 [label="adiposity <= 19.535\ngini = 0.384\nsamples = 27\nvalue = [20, 7]\nclass = No left", fillcolor="#eead7e"] ;
2 -> 14 ;
15 [label="row.names <= 258.0\ngini = 0.444\nsamples = 6\nvalue = [2, 4]\nclass = Left", fillcolor="#9ccef2"] ;
14 -> 15 ;
16 [label="gini = 0.0\nsamples = 4\nvalue = [0, 4]\nclass = Left", fillcolor="#399de5"] ;
15 -> 16 ;
17 [label="gini = 0.0\nsamples = 2\nvalue = [2, 0]\nclass = No left", fillcolor="#e58139"] ;
15 -> 17 ;
18 [label="row.names <= 13.5\ngini = 0.245\nsamples = 21\nvalue = [18, 3]\nclass = No left", fillcolor="#e9965a"] ;
14 -> 18 ;
19 [label="gini = 0.0\nsamples = 1\nvalue = [0, 1]\nclass = Left", fillcolor="#399de5"] ;
18 -> 19 ;
20 [label="typea <= 67.5\ngini = 0.18\nsamples = 20\nvalue = [18, 2]\nclass = No left", fillcolor="#e88f4f"] ;
18 -> 20 ;
21 [label="row.names <= 62.5\ngini = 0.105\nsamples = 18\nvalue = [17, 1]\nclass = No left", fillcolor="#e78845"] ;
20 -> 21 ;
22 [label="gini = 0.444\nsamples = 3\nvalue = [2, 1]\nclass = No left", fillcolor="#f2c09c"] ;
21 -> 22 ;
23 [label="gini = 0.0\nsamples = 15\nvalue = [15, 0]\nclass = No left", fillcolor="#e58139"] ;
21 -> 23 ;
24 [label="sbp <= 136.0\ngini = 0.5\nsamples = 2\nvalue = [1, 1]\nclass = No left", fillcolor="#ffffff"] ;
20 -> 24 ;
25 [label="gini = 0.0\nsamples = 1\nvalue = [1, 0]\nclass = No left", fillcolor="#e58139"] ;
24 -> 25 ;
26 [label="gini = 0.0\nsamples = 1\nvalue = [0, 1]\nclass = Left", fillcolor="#399de5"] ;
24 -> 26 ;
27 [label="famhist_Present <= 0.5\ngini = 0.44\nsamples = 110\nvalue = [74, 36]\nclass = No left", fillcolor="#f2be99"] ;
1 -> 27 ;
28 [label="ldl <= 4.52\ngini = 0.338\nsamples = 65\nvalue = [51, 14]\nclass = No left", fillcolor="#eca46f"] ;
27 -> 28 ;
29 [label="row.names <= 75.5\ngini = 0.444\nsamples = 12\nvalue = [4, 8]\nclass = Left", fillcolor="#9ccef2"] ;
28 -> 29 ;
30 [label="alcohol <= 29.535\ngini = 0.375\nsamples = 4\nvalue = [3, 1]\nclass = No left", fillcolor="#eeab7b"] ;
29 -> 30 ;
31 [label="gini = 0.0\nsamples = 3\nvalue = [3, 0]\nclass = No left", fillcolor="#e58139"] ;
30 -> 31 ;
32 [label="gini = 0.0\nsamples = 1\nvalue = [0, 1]\nclass = Left", fillcolor="#399de5"] ;
30 -> 32 ;
33 [label="alcohol <= 35.075\ngini = 0.219\nsamples = 8\nvalue = [1, 7]\nclass = Left", fillcolor="#55abe9"] ;
29 -> 33 ;
34 [label="gini = 0.0\nsamples = 7\nvalue = [0, 7]\nclass = Left", fillcolor="#399de5"] ;
33 -> 34 ;
35 [label="gini = 0.0\nsamples = 1\nvalue = [1, 0]\nclass = No left", fillcolor="#e58139"] ;
33 -> 35 ;
36 [label="sbp <= 135.0\ngini = 0.201\nsamples = 53\nvalue = [47, 6]\nclass = No left", fillcolor="#e89152"] ;
28 -> 36 ;
37 [label="alcohol <= 25.87\ngini = 0.056\nsamples = 35\nvalue = [34, 1]\nclass = No left", fillcolor="#e6853f"] ;
36 -> 37 ;
38 [label="gini = 0.0\nsamples = 30\nvalue = [30, 0]\nclass = No left", fillcolor="#e58139"] ;
37 -> 38 ;
39 [label="sbp <= 116.0\ngini = 0.32\nsamples = 5\nvalue = [4, 1]\nclass = No left", fillcolor="#eca06a"] ;
37 -> 39 ;
40 [label="gini = 0.0\nsamples = 1\nvalue = [0, 1]\nclass = Left", fillcolor="#399de5"] ;
39 -> 40 ;
41 [label="gini = 0.0\nsamples = 4\nvalue = [4, 0]\nclass = No left", fillcolor="#e58139"] ;
39 -> 41 ;
42 [label="sbp <= 145.0\ngini = 0.401\nsamples = 18\nvalue = [13, 5]\nclass = No left", fillcolor="#efb185"] ;
36 -> 42 ;
43 [label="ldl <= 6.07\ngini = 0.444\nsamples = 6\nvalue = [2, 4]\nclass = Left", fillcolor="#9ccef2"] ;
42 -> 43 ;
44 [label="gini = 0.0\nsamples = 3\nvalue = [0, 3]\nclass = Left", fillcolor="#399de5"] ;
43 -> 44 ;
45 [label="gini = 0.444\nsamples = 3\nvalue = [2, 1]\nclass = No left", fillcolor="#f2c09c"] ;
43 -> 45 ;
46 [label="ldl <= 8.62\ngini = 0.153\nsamples = 12\nvalue = [11, 1]\nclass = No left", fillcolor="#e78c4b"] ;
42 -> 46 ;
47 [label="gini = 0.0\nsamples = 11\nvalue = [11, 0]\nclass = No left", fillcolor="#e58139"] ;
46 -> 47 ;
48 [label="gini = 0.0\nsamples = 1\nvalue = [0, 1]\nclass = Left", fillcolor="#399de5"] ;
46 -> 48 ;
49 [label="ldl <= 10.995\ngini = 0.5\nsamples = 45\nvalue = [23, 22]\nclass = No left", fillcolor="#fefaf6"] ;
27 -> 49 ;
50 [label="row.names <= 439.5\ngini = 0.495\nsamples = 42\nvalue = [23, 19]\nclass = No left", fillcolor="#fae9dd"] ;
49 -> 50 ;
51 [label="row.names <= 355.0\ngini = 0.489\nsamples = 40\nvalue = [23, 17]\nclass = No left", fillcolor="#f8decb"] ;
50 -> 51 ;
52 [label="tobacco <= 0.04\ngini = 0.498\nsamples = 36\nvalue = [19, 17]\nclass = No left", fillcolor="#fcf2ea"] ;
51 -> 52 ;
53 [label="gini = 0.0\nsamples = 4\nvalue = [4, 0]\nclass = No left", fillcolor="#e58139"] ;
52 -> 53 ;
54 [label="gini = 0.498\nsamples = 32\nvalue = [15, 17]\nclass = Left", fillcolor="#e8f3fc"] ;
52 -> 54 ;
55 [label="gini = 0.0\nsamples = 4\nvalue = [4, 0]\nclass = No left", fillcolor="#e58139"] ;
51 -> 55 ;
56 [label="gini = 0.0\nsamples = 2\nvalue = [0, 2]\nclass = Left", fillcolor="#399de5"] ;
50 -> 56 ;
57 [label="gini = 0.0\nsamples = 3\nvalue = [0, 3]\nclass = Left", fillcolor="#399de5"] ;
49 -> 57 ;
58 [label="famhist_Present <= 0.5\ngini = 0.494\nsamples = 133\nvalue = [59, 74]\nclass = Left", fillcolor="#d7ebfa"] ;
0 -> 58 [labeldistance=2.5, labelangle=-45, headlabel="False"] ;
59 [label="row.names <= 138.0\ngini = 0.482\nsamples = 64\nvalue = [38, 26]\nclass = No left", fillcolor="#f7d7c0"] ;
58 -> 59 ;
60 [label="sbp <= 153.0\ngini = 0.444\nsamples = 18\nvalue = [6, 12]\nclass = Left", fillcolor="#9ccef2"] ;
59 -> 60 ;
61 [label="alcohol <= 1.03\ngini = 0.337\nsamples = 14\nvalue = [3, 11]\nclass = Left", fillcolor="#6fb8ec"] ;
60 -> 61 ;
62 [label="age <= 59.5\ngini = 0.444\nsamples = 3\nvalue = [2, 1]\nclass = No left", fillcolor="#f2c09c"] ;
61 -> 62 ;
63 [label="gini = 0.0\nsamples = 2\nvalue = [2, 0]\nclass = No left", fillcolor="#e58139"] ;
62 -> 63 ;
64 [label="gini = 0.0\nsamples = 1\nvalue = [0, 1]\nclass = Left", fillcolor="#399de5"] ;
62 -> 64 ;
65 [label="obesity <= 20.75\ngini = 0.165\nsamples = 11\nvalue = [1, 10]\nclass = Left", fillcolor="#4da7e8"] ;
61 -> 65 ;
66 [label="row.names <= 105.5\ngini = 0.5\nsamples = 2\nvalue = [1, 1]\nclass = No left", fillcolor="#ffffff"] ;
65 -> 66 ;
67 [label="gini = 0.0\nsamples = 1\nvalue = [1, 0]\nclass = No left", fillcolor="#e58139"] ;
66 -> 67 ;
68 [label="gini = 0.0\nsamples = 1\nvalue = [0, 1]\nclass = Left", fillcolor="#399de5"] ;
66 -> 68 ;
69 [label="gini = 0.0\nsamples = 9\nvalue = [0, 9]\nclass = Left", fillcolor="#399de5"] ;
65 -> 69 ;
70 [label="ldl <= 2.96\ngini = 0.375\nsamples = 4\nvalue = [3, 1]\nclass = No left", fillcolor="#eeab7b"] ;
60 -> 70 ;
71 [label="gini = 0.0\nsamples = 1\nvalue = [0, 1]\nclass = Left", fillcolor="#399de5"] ;
70 -> 71 ;
72 [label="gini = 0.0\nsamples = 3\nvalue = [3, 0]\nclass = No left", fillcolor="#e58139"] ;
70 -> 72 ;
73 [label="ldl <= 10.34\ngini = 0.423\nsamples = 46\nvalue = [32, 14]\nclass = No left", fillcolor="#f0b890"] ;
59 -> 73 ;
74 [label="alcohol <= 1.8\ngini = 0.381\nsamples = 43\nvalue = [32, 11]\nclass = No left", fillcolor="#eeac7d"] ;
73 -> 74 ;
75 [label="tobacco <= 0.7\ngini = 0.494\nsamples = 18\nvalue = [10, 8]\nclass = No left", fillcolor="#fae6d7"] ;
74 -> 75 ;
76 [label="gini = 0.0\nsamples = 5\nvalue = [5, 0]\nclass = No left", fillcolor="#e58139"] ;
75 -> 76 ;
77 [label="row.names <= 184.0\ngini = 0.473\nsamples = 13\nvalue = [5, 8]\nclass = Left", fillcolor="#b5daf5"] ;
75 -> 77 ;
78 [label="gini = 0.0\nsamples = 2\nvalue = [2, 0]\nclass = No left", fillcolor="#e58139"] ;
77 -> 78 ;
79 [label="gini = 0.397\nsamples = 11\nvalue = [3, 8]\nclass = Left", fillcolor="#83c2ef"] ;
77 -> 79 ;
80 [label="typea <= 65.5\ngini = 0.211\nsamples = 25\nvalue = [22, 3]\nclass = No left", fillcolor="#e99254"] ;
74 -> 80 ;
81 [label="tobacco <= 7.9\ngini = 0.153\nsamples = 24\nvalue = [22, 2]\nclass = No left", fillcolor="#e78c4b"] ;
80 -> 81 ;
82 [label="gini = 0.0\nsamples = 17\nvalue = [17, 0]\nclass = No left", fillcolor="#e58139"] ;
81 -> 82 ;
83 [label="gini = 0.408\nsamples = 7\nvalue = [5, 2]\nclass = No left", fillcolor="#efb388"] ;
81 -> 83 ;
84 [label="gini = 0.0\nsamples = 1\nvalue = [0, 1]\nclass = Left", fillcolor="#399de5"] ;
80 -> 84 ;
85 [label="gini = 0.0\nsamples = 3\nvalue = [0, 3]\nclass = Left", fillcolor="#399de5"] ;
73 -> 85 ;
86 [label="ldl <= 5.0\ngini = 0.423\nsamples = 69\nvalue = [21, 48]\nclass = Left", fillcolor="#90c8f0"] ;
58 -> 86 ;
87 [label="sbp <= 129.0\ngini = 0.499\nsamples = 29\nvalue = [14, 15]\nclass = Left", fillcolor="#f2f8fd"] ;
86 -> 87 ;
88 [label="sbp <= 111.0\ngini = 0.245\nsamples = 7\nvalue = [6, 1]\nclass = No left", fillcolor="#e9965a"] ;
87 -> 88 ;
89 [label="gini = 0.0\nsamples = 1\nvalue = [0, 1]\nclass = Left", fillcolor="#399de5"] ;
88 -> 89 ;
90 [label="gini = 0.0\nsamples = 6\nvalue = [6, 0]\nclass = No left", fillcolor="#e58139"] ;
88 -> 90 ;
91 [label="adiposity <= 24.88\ngini = 0.463\nsamples = 22\nvalue = [8, 14]\nclass = Left", fillcolor="#aad5f4"] ;
87 -> 91 ;
92 [label="gini = 0.0\nsamples = 7\nvalue = [0, 7]\nclass = Left", fillcolor="#399de5"] ;
91 -> 92 ;
93 [label="typea <= 51.0\ngini = 0.498\nsamples = 15\nvalue = [8, 7]\nclass = No left", fillcolor="#fcefe6"] ;
91 -> 93 ;
94 [label="obesity <= 27.22\ngini = 0.375\nsamples = 8\nvalue = [2, 6]\nclass = Left", fillcolor="#7bbeee"] ;
93 -> 94 ;
95 [label="gini = 0.0\nsamples = 5\nvalue = [0, 5]\nclass = Left", fillcolor="#399de5"] ;
94 -> 95 ;
96 [label="gini = 0.444\nsamples = 3\nvalue = [2, 1]\nclass = No left", fillcolor="#f2c09c"] ;
94 -> 96 ;
97 [label="age <= 62.0\ngini = 0.245\nsamples = 7\nvalue = [6, 1]\nclass = No left", fillcolor="#e9965a"] ;
93 -> 97 ;
98 [label="gini = 0.0\nsamples = 6\nvalue = [6, 0]\nclass = No left", fillcolor="#e58139"] ;
97 -> 98 ;
99 [label="gini = 0.0\nsamples = 1\nvalue = [0, 1]\nclass = Left", fillcolor="#399de5"] ;
97 -> 99 ;
100 [label="tobacco <= 2.69\ngini = 0.289\nsamples = 40\nvalue = [7, 33]\nclass = Left", fillcolor="#63b2eb"] ;
86 -> 100 ;
101 [label="sbp <= 123.0\ngini = 0.473\nsamples = 13\nvalue = [5, 8]\nclass = Left", fillcolor="#b5daf5"] ;
100 -> 101 ;
102 [label="gini = 0.0\nsamples = 3\nvalue = [3, 0]\nclass = No left", fillcolor="#e58139"] ;
101 -> 102 ;
103 [label="obesity <= 35.92\ngini = 0.32\nsamples = 10\nvalue = [2, 8]\nclass = Left", fillcolor="#6ab6ec"] ;
101 -> 103 ;
104 [label="adiposity <= 30.27\ngini = 0.198\nsamples = 9\nvalue = [1, 8]\nclass = Left", fillcolor="#52a9e8"] ;
103 -> 104 ;
105 [label="gini = 0.5\nsamples = 2\nvalue = [1, 1]\nclass = No left", fillcolor="#ffffff"] ;
104 -> 105 ;
106 [label="gini = 0.0\nsamples = 7\nvalue = [0, 7]\nclass = Left", fillcolor="#399de5"] ;
104 -> 106 ;
107 [label="gini = 0.0\nsamples = 1\nvalue = [1, 0]\nclass = No left", fillcolor="#e58139"] ;
103 -> 107 ;
108 [label="age <= 59.5\ngini = 0.137\nsamples = 27\nvalue = [2, 25]\nclass = Left", fillcolor="#49a5e7"] ;
100 -> 108 ;
109 [label="gini = 0.0\nsamples = 22\nvalue = [0, 22]\nclass = Left", fillcolor="#399de5"] ;
108 -> 109 ;
110 [label="alcohol <= 14.85\ngini = 0.48\nsamples = 5\nvalue = [2, 3]\nclass = Left", fillcolor="#bddef6"] ;
108 -> 110 ;
111 [label="gini = 0.0\nsamples = 3\nvalue = [0, 3]\nclass = Left", fillcolor="#399de5"] ;
110 -> 111 ;
112 [label="gini = 0.0\nsamples = 2\nvalue = [2, 0]\nclass = No left", fillcolor="#e58139"] ;
110 -> 112 ;
}